const float conv1_core[3][5][5]={0.5028009,0.20527522,0.053387705,0.067741126,-0.17401934,
0.41888618,0.5277801,0.7512537,0.57016546,0.29276264,
0.15755843,0.36817753,0.5259811,0.51207453,0.5039864,
-0.17140998,-0.1513673,-0.10954812,0.3466248,0.44466472,
-0.42257237,-0.5077705,-0.49455735,-0.37594703,-0.0871916,
0.3207185,0.4580468,0.3324504,-0.2611941,-0.0065658656,
0.19596851,0.46616197,0.2468064,-0.403048,-0.42955196,
0.06995847,0.5331327,0.049380377,-0.21212502,-0.45722583,
0.42549706,0.24514514,0.12574969,-0.27317467,-0.4352944,
0.42378834,0.1863416,0.076433465,-0.21087109,-0.19680005,
-0.33356562,-0.09376508,0.3111902,0.32369512,0.66349345,
-0.002886603,0.008699175,0.07138311,0.45594603,0.38549784,
-0.23543783,0.22844182,0.41031778,0.50212973,0.020392954,
-0.0043506036,0.17787863,0.3709763,0.18221,-0.06382636,
0.24807586,0.22147231,0.5078053,0.4364781,0.29540518
};
const float conv1_bias[3]={0.037715476,-0.20364633,-0.21942984};
const float conv2_core[5][3][5][5]={-0.23746045,-0.017069785,-0.17285615,-0.19314836,-0.24914175,
0.09755491,0.13720918,-0.02468703,-0.18098806,-0.33636755,
0.16625905,0.24082133,0.08188706,-0.08226344,-0.13489534,
0.14401218,0.0054253293,-0.18123029,-0.1445138,-0.11617947,
-0.103805564,-0.17858636,0.03999491,-0.0063499943,-0.06761112,
-0.12694433,-0.27067155,-0.17112136,0.14071733,0.0790793,
-0.001280711,-0.069976754,0.0362759,0.10043154,0.13185081,
-0.041578714,0.014948409,0.15215023,0.24111511,0.14395703,
0.022642562,-0.121328995,0.13850498,0.4003514,0.26437807,
-0.009898951,-0.078380115,0.19432624,0.25812253,0.15595204,
-0.025850335,-0.056442365,-0.17393841,-0.0114064,0.063130155,
0.15002722,0.036280293,-0.10764999,-0.007860614,-0.032407235,
0.03559381,-0.16037822,-0.09668953,0.026095062,0.07194716,
0.08900555,-0.040716354,0.100887984,0.22565767,0.17502138,
0.09786767,0.26819786,0.2989421,0.39243895,0.24027434,
-0.09328201,-0.09406592,-0.061350286,0.14128062,0.020889554,
0.16192044,-0.14743474,-0.22762294,0.099021375,0.13811213,
0.25645018,0.120651156,0.16849932,-0.061517563,-0.04062534,
-0.048257902,0.17070873,0.24196663,0.2253461,0.27962965,
-0.025246521,0.3183815,0.3903684,0.40163472,0.26820815,
-0.12666316,-0.0001489177,-0.104934655,-0.18235126,-0.13989133,
-0.03449921,0.0044986657,0.13924578,-0.10736647,-0.07495576,
0.0010345904,0.009475378,0.06473033,-0.19359048,-0.12624425,
0.018053655,0.16564232,0.082476415,0.0342196,0.06591666,
-0.22460012,-0.23040065,-0.032419313,-0.08058701,0.06915713,
-0.047906168,0.04166364,-0.041285098,-0.104465656,-0.1708992,
0.16517894,0.14150764,0.10437465,-0.15253069,-0.33473077,
-0.014997965,-0.006307399,-0.08678333,-0.055393588,-0.15737128,
-0.0644359,0.12832709,-0.16942157,0.15843497,-0.045667574,
-0.1703647,-0.039789867,-0.09001783,-0.1592907,-0.26408884,
0.13106789,0.14410593,-0.21998449,-0.42680258,0.006100987,
-0.25887975,-0.12880972,-0.20282656,-0.4765687,-0.22875912,
-0.18102951,-0.19428766,-0.34177366,-0.2794985,-0.08224894,
-0.09500231,-0.29829744,-0.31167868,-0.30113274,-0.1590456,
-0.14243983,-0.1787123,-0.1444575,-0.27199283,-0.048063207,
0.043686904,0.21129678,0.20821163,0.3123479,0.02184974,
-0.09108266,0.22519122,0.48582292,0.3277824,-0.25795162,
0.25262666,0.25397018,0.23778763,0.04889553,-0.15835628,
0.26796615,-0.016508453,0.20617642,0.085616015,0.1953221,
0.12937725,-0.064622074,0.18839757,0.056672435,0.2875955,
-0.0944611,0.10775761,0.11134052,-0.012143733,0.14547323,
0.20876108,0.29032904,0.08480169,-0.39245737,0.31001708,
0.2618696,0.18933395,-0.07760256,-0.13212581,0.5014929,
0.07081264,0.012835705,-0.12497845,-0.05790886,0.36038747,
-0.19991906,-0.027262041,-0.07884233,0.07807859,0.31893647,
0.251026,0.3464266,0.36066082,0.30045724,0.6186766,
0.12872173,0.231952,0.12042604,-0.053460572,-0.073612206,
-0.20606191,-0.19940393,-0.31368417,-0.4170589,-0.19421695,
0.10233123,-0.03267477,-0.094345294,-0.05336064,0.051434837,
0.03232547,0.13677251,-0.0021272697,-0.08293898,0.006561113,
-0.02770728,-0.04248706,-0.00606584,0.022881951,0.01805849,
-0.052030247,-0.122474976,-0.15780851,-0.0801894,-0.15014297,
-0.070131466,-0.1283714,-0.2213793,-0.22931336,-0.2012093,
0.043327574,-0.037715882,-0.17057745,-0.05819947,-0.0074872943,
0.009821063,0.0390993,0.098739445,0.15125519,0.08704292,
-0.07722708,0.021032643,0.12536564,0.1755266,0.123248346,
-0.20374341,-0.25047544,-0.16843386,-0.302665,-0.11158412,
-0.18191479,-0.14967543,-0.17316172,-0.24948867,0.11742099,
0.037446428,-0.13003726,-0.059925295,0.06402658,0.292955,
0.14478245,0.06513319,0.024623167,-0.01877825,0.1626538,
0.019667137,0.17112073,0.08073415,-0.013318961,-0.041096058,
-0.1628661,-0.1934995,-0.14712362,-0.1515946,0.02599606,
-0.06176049,-0.116721086,-0.059850395,0.03392325,0.008910376,
0.29548576,0.25837457,0.07656514,0.1606951,0.030346408,
0.28286558,0.07266844,0.014337653,0.24149366,0.2725041,
-0.37024295,-0.12816752,-0.118990354,-0.096615724,-0.04268108,
-0.04198862,-0.12821816,-0.080071054,0.100604415,0.07730029,
-0.16020346,-0.20676894,0.036877844,-0.010598434,0.19538644,
-0.039959118,-0.057557203,0.1567956,0.22761606,0.033478417,
0.053913,-0.040539954,0.03023979,-0.24161774,-0.28522995,
0.07052395,-0.028527033,-0.031347383,-0.090450175,-0.0076932237,
0.064080775,-0.06916525,-0.032564618,0.24307789,0.33783013,
0.08960002,0.14286205,0.081490204,0.3120243,-0.042972945,
0.12197233,0.112007834,0.14159477,-0.035745196,-0.021429278,
-0.29819646,-0.41770905,-0.1754689,0.040533144,-0.06260346
};

const float conv2_bias[5]={-0.14154474,-0.066442944,0.22678272,0.09622156,-0.2500253};

const float fc1_wei[80][50]={0.11810227,-0.32038358,-0.005908532,-0.27517658,-0.01996674,-0.29338536,0.17136006,0.048514202,0.08736693,-0.24135429,-0.027867123,-0.026946051,0.17741492,0.14861432,-0.028861009,-0.08298037,0.11898804,0.035906207,0.0051485044,-0.029146593,0.0605686,0.008347006,-0.24384023,0.038327016,0.12416389,0.03702539,0.056679845,0.013019834,-0.15025692,-0.35863978,-0.01961156,-0.028209183,-0.11830595,0.04079681,0.028001668,0.05782594,-0.092112,-0.16729125,-0.109899536,0.104507,0.032631267,0.15024696,0.12403113,0.2473979,-0.21098481,0.120738894,0.28783655,-0.056032706,0.05287041,-0.03935175,
-0.1398857,0.047697272,-0.0466998,-0.045404308,-0.07349055,-0.03844201,-0.06048866,-0.05598376,-0.11647936,-0.06412194,-0.0019428838,0.10944303,-0.16885348,-0.0964903,0.007632135,-0.052843273,-0.119754024,-0.118387215,-0.08369871,-0.10494012,-0.07484516,-0.09314955,0.09370813,-0.14503655,0.070650265,-0.122058414,-0.119409576,-0.036403302,0.13145202,0.069393046,0.10714721,0.17574571,0.01056459,-0.013142236,0.07208011,-0.10525411,-0.03379142,-0.02138477,-0.16273391,0.07798403,0.1628018,-0.12051213,0.021165367,-0.10557812,-0.004054135,-0.14776173,-0.02886941,0.09791006,-0.04835353,0.14971149,
0.02867132,0.082490474,-0.03204837,0.090013966,0.045788374,0.16119608,-0.11611701,-0.08819141,-0.06771242,0.06794249,-0.036500916,0.012052353,-0.08281814,0.050580785,-0.092318304,0.019610917,-0.049823496,0.0062366035,0.08855395,-0.13869414,-0.004209947,0.033073176,-0.0076186913,0.07634152,-0.18436854,-0.0948183,0.092438005,-0.015113897,-0.013953182,-0.0002766468,0.07836379,-0.10095967,-0.089563146,-0.2097771,0.014059566,0.06369984,-0.027274208,0.24583362,0.29023913,-0.12145516,-0.16325192,0.002905858,-0.0818114,-0.0075273244,0.15758003,0.09911842,-0.07173574,-0.04048386,0.003489196,0.060147956,
-0.11230279,-0.0016819875,0.021198174,0.19419046,0.201488,-0.07698465,-0.027147597,0.017496947,-0.13957554,0.21288578,-0.07832332,0.19692118,-0.22557637,0.09620043,0.0072848056,0.07883709,0.033784423,-0.017530344,0.29598826,-0.14425147,-0.09201824,0.043894675,-0.096377276,-0.100974604,-0.12626483,-0.10326585,-0.030903181,0.11937204,-0.014058201,0.041086156,0.120320216,-0.20329958,-0.22882621,-0.20096552,0.14876826,-0.02771251,-0.08218382,0.16764973,0.011118152,0.07508308,-0.11792996,0.12299657,-0.04043025,-0.020260017,0.074531294,0.029657988,-0.24264951,-0.062134672,-0.055292673,-0.1248601,
0.20164913,-0.08380885,0.08293865,-0.23023103,0.099675275,-0.11414236,0.22763692,-0.0038310427,0.10746522,-0.14955828,-0.0538528,-0.067674026,0.1368806,0.10919665,-0.11297491,0.20238712,-0.12578289,-0.0882983,0.0671182,-0.036258537,-0.13032101,0.09455149,-0.046807554,0.10861271,-0.045890678,0.13526964,0.10676234,0.127789,-0.16266121,-0.038006224,-0.1346473,0.098851405,-0.0057465676,0.016331362,-0.07609388,0.14099129,-0.07781222,-0.06312632,-0.0907802,0.042409617,0.0022892633,0.036892217,0.12863946,0.033674728,-0.08895085,0.17433333,0.18042487,-0.066948436,0.048163526,0.10738036,
-0.060158595,0.14017707,-0.07909948,0.16142842,-0.005553791,0.057120144,-0.14285894,-0.046324845,0.028755995,0.2266143,-0.04007912,0.013516947,0.09347337,-0.0028337801,0.1836537,-0.035918754,0.24307813,-0.04428973,0.09770332,0.051217712,0.044815715,-0.15862116,0.09584657,-0.08921936,0.16203819,0.108601,-0.08297888,0.017067641,-0.2233053,-0.087636605,0.023311798,-0.008092283,0.1469852,0.06634943,-0.115972534,-0.0046562674,-0.04821765,-0.13740693,-0.09661187,0.054243255,-0.19124855,-0.023992315,-0.015419271,0.12318447,-0.23387083,-0.15689802,-0.10556655,-0.21284303,-0.16955003,-0.04398208,
-0.00046459312,-0.07204731,-0.11039622,-0.08175487,-0.052764505,-0.00751416,0.18285717,0.038104944,-0.004650383,-0.05988066,0.26137152,-0.24281278,0.06030472,-0.0032806676,-0.107631,0.06292825,-0.033446804,0.19096199,-0.09892685,-3.2162723e-05,0.12082402,-0.12867773,0.08306552,0.13027467,-0.07565302,0.13556203,0.17063154,-0.030415235,-0.07559602,-0.08284955,-0.093547724,-0.04354154,0.025784634,-0.08464995,-0.14059362,0.17195582,-0.012969106,0.07228557,0.108089805,-0.17232212,-0.044799984,0.17311478,-0.15142201,-0.065381035,0.12793635,-0.05505747,-0.06612845,-0.17537442,-0.14857367,0.06337708,
0.19910072,-0.0133215105,0.18607895,-0.114241295,-0.04635172,0.13593541,-0.028869353,0.027133964,0.10383805,-0.14608777,0.01703992,-0.1941853,0.10141702,-0.124093615,-0.21181227,-0.13756508,-0.058663078,0.09866978,-0.21494134,-0.011445126,0.11460506,0.07125302,-0.12069553,-0.049793884,-0.10939515,0.06316949,-0.13143161,-0.041906677,-0.0036896756,0.011083533,-0.23651503,-0.10756107,0.077524655,0.05771133,-0.0932452,-0.099258885,-0.033969246,-0.059798975,0.041701015,-0.05468834,0.18572177,-0.09525351,0.06769154,-0.12590699,-0.0036756853,0.08614175,0.10016554,-0.019875767,-0.037535284,-0.09802316,
0.116600536,0.042262368,0.11274286,0.009799056,0.027241547,-0.043629188,-0.30816865,0.04368065,0.19706112,0.025529096,-0.10675114,-0.05301513,-0.0006166721,-0.26536378,0.04304573,-0.06483973,0.1265797,-0.17135076,-0.20299914,0.2240859,0.05766924,0.15051048,-0.10470529,0.073336944,0.16177829,0.052780017,-0.03215944,0.11872595,-0.20997323,-0.004089369,-0.31454057,-0.1203072,0.08601184,0.0013583082,0.012510919,-0.05049411,0.26109242,-0.26841095,-0.10412633,0.08271737,-0.1352592,-0.10124789,-0.025386086,-0.034580998,-0.09645379,-0.06007883,0.04221435,-0.21896242,0.07267273,-0.2002894,
0.0007367182,0.13831905,0.10158068,0.10564703,-0.08211555,0.1169391,-0.09339163,-0.034220513,0.07043606,0.05262393,0.19481677,-0.13117923,0.09086028,-0.020717701,0.008412536,0.00511363,0.0019406034,-0.033257652,-0.06072364,0.18895784,0.071849324,0.07304108,0.16828969,-0.0547923,0.024758855,0.03561425,-0.05152669,-0.19494127,-0.09993718,0.041322544,-0.15391058,0.16079459,0.1696419,0.048029218,-0.024597254,-0.0721582,0.12647621,-0.17577831,-0.088837765,-0.13114907,0.006506268,-0.019562038,-0.014705303,-0.014442607,-0.07631482,-0.09843456,0.004778093,-0.0022107128,0.10924871,0.26496986,
0.05674991,-0.032607105,-0.0016972183,-0.017686462,0.025962612,-0.020669712,0.043974094,-0.0649296,0.16467705,-0.05434088,-0.27511543,0.07931694,0.0027522277,0.03044065,0.095153496,0.049114514,-0.066136904,-0.058261685,0.06907936,0.14462276,-0.088379614,0.07745588,-0.15515873,0.07122661,0.06262474,-0.022303006,0.055998515,-0.032761257,0.221258,0.19040756,0.2447997,0.071792535,-0.10733231,0.15707807,-0.020818446,0.021121016,0.020010121,0.009894524,0.0012299003,0.068280414,0.048627183,-0.089065254,0.083295606,0.04481559,0.022146476,-0.069230214,0.10373459,0.2683925,-0.009559571,-0.13423224,
-0.08784411,0.2376519,-0.00022442364,0.04752621,-0.045686346,0.014421941,-0.06346051,0.05690247,-0.0055917534,0.06964694,-0.2167386,0.13185093,0.02678524,-0.04144524,0.23122452,-0.056783013,0.019066902,-0.17383899,-0.0023114313,0.21587248,-0.16209157,-0.07398921,-0.2550413,-0.06725638,0.07162329,0.0018581221,-0.10934489,-0.1034935,0.14062728,0.088786,0.05631877,-0.04431955,0.12305225,0.11241974,0.095522955,-0.02539573,0.083911434,-0.17291267,-0.08297617,-0.0036448825,0.07289001,-0.12200906,0.008840183,0.07336934,-0.00068290165,-0.12809613,0.00065259845,0.11967022,0.042960066,-0.1971147,
-0.02546294,0.0071819304,-0.025507871,-0.08340826,-0.07458731,-0.077461235,0.06443464,-0.045594454,-0.1654525,-0.07316537,-0.0077384673,0.01539237,-0.08256238,-0.02266256,0.07765559,-0.10390314,-0.17142856,0.04796858,-0.092650026,-0.13432957,0.006493589,0.0054911408,0.044191554,-0.14063995,0.10259074,-0.16077007,0.055126477,0.1080543,0.30650717,0.058541574,0.19751781,0.05757937,-0.060257144,-0.036055382,0.05669944,-0.10227722,-0.10215128,0.075567454,-0.036056656,0.032060117,0.05627952,-0.047791094,0.041700605,-0.049112342,0.0575615,0.13140963,0.08654517,0.18118107,0.13637488,0.14870015,
-0.057895027,-0.19916384,-0.13367175,-0.08547928,-0.04442223,0.0372364,0.092324995,-0.0338403,-0.04681344,-0.053726654,0.11341384,0.06647765,-0.04275967,0.06678247,0.008804288,-0.040732447,-0.019502735,0.07409851,-0.09873932,-0.08446743,0.018803773,-0.077075474,-0.03777059,0.0051639276,0.03768064,-0.07430923,-0.12907022,0.008943116,-0.06501487,-0.119742036,-0.046628334,0.0047789253,0.004232839,0.10864578,0.07519778,-0.08951373,-0.102296084,0.004007875,-0.05346173,0.09131061,0.17524837,0.058601573,-0.0808429,0.074394256,-0.016158642,0.12347756,0.050106294,0.09668443,0.05752175,-0.055515673,
-0.068208456,-0.019700535,-0.033730958,0.107165135,-0.029672796,-0.03368206,0.03479135,0.090940654,-0.16983373,0.075937614,0.059466027,0.034675468,-0.08734658,-0.04872625,-0.014530436,-0.047060307,0.09400272,-0.002456703,-0.005020828,-0.11341323,-0.050502013,-0.08105401,-0.028522715,-0.04042569,0.055875517,-0.008525368,-0.06462691,0.037545424,-0.059025053,-0.09659111,-0.071945705,-0.04810365,-0.0014513582,-0.048306488,0.09618058,-0.078987114,-0.04871646,-0.042644404,-0.05105446,0.035144404,-0.004490598,0.054077413,-0.024605341,-0.0008509212,-0.11589606,-0.050167527,-0.09875895,0.026452394,4.393072e-05,-0.0761582,
-0.088270046,-0.09622166,-0.05788379,-0.008685843,-0.013710371,-0.06940312,0.109757036,0.032087207,-0.04083319,0.03688987,-0.06679332,-0.056884456,-0.13284874,0.035170544,-0.03087224,0.1879608,-0.09966746,0.08648477,0.07148597,-0.006920728,0.13076553,0.031811345,-0.013443509,0.0041828407,-0.13475166,-0.08950869,0.106981374,-0.024017297,-0.13547555,0.092736006,-0.088652946,-0.08596044,-0.14587443,-0.10670056,-0.061144434,-0.05017638,0.102642365,-0.11718302,-0.040269963,-0.09668585,-0.15438867,-0.0046116496,-0.019210441,-0.04314267,0.040850572,-0.12818281,-0.11238778,-0.044889584,0.071907125,-0.0140688075,
0.0275992,-0.027719162,-0.015489462,0.060009282,-0.0021764827,-0.007839515,0.028756954,0.008108766,-0.040803492,0.078179374,0.04588362,-0.046424456,0.101476476,0.13039853,-0.03851009,-0.13228549,-0.009678991,0.055950448,-0.11948607,-0.08217387,0.18657966,0.015178659,0.01592629,-0.12184249,-0.025758406,-0.05206157,-0.14711747,-0.0017987224,0.028958742,-0.1710708,-0.19484353,-0.11814122,-0.16144033,-0.08650803,0.026809989,-0.15093692,-0.034645554,-0.010799982,0.0738757,0.0017832185,0.065741055,0.04872176,-0.06219079,-0.04697027,0.021919962,0.13114661,-0.04979417,-0.07326527,-0.05515237,-0.17967056,
-0.0702307,-0.06607621,-0.100436464,0.024637327,-0.16293277,-0.07081455,0.056091968,-0.06532923,-0.024381427,0.046385095,-0.004337247,-0.0359289,-0.060858764,0.028478032,-0.0040866937,-0.14346601,-0.035986327,0.02950687,0.05216747,0.029530251,0.1250603,-0.075980864,-0.02356621,-0.03812557,-0.02867985,-0.15399723,-0.024213528,-0.1020412,-0.09518805,-0.06804237,-0.06279743,0.008045099,-0.20518896,-0.013055901,0.097963855,-0.15832295,-0.0036133972,-0.033289846,0.010442097,0.1248656,-0.0095025115,-0.054510817,-0.002451507,0.08020723,0.015763115,-0.062207144,-0.0065197814,0.09329772,0.02392849,0.06817785,
-0.083371,0.011749116,-0.0006476418,-0.029101083,-0.026256636,-0.0713304,-0.030580902,-0.13763604,-0.32160446,0.05868099,-0.036465153,0.077457875,-0.14619823,-0.046215102,-0.07115793,0.042390756,-0.1287769,0.116771854,-0.0012584997,-0.09443671,0.011507199,0.04750834,0.016989391,-0.13281247,-0.031386893,-0.20551835,-0.09021221,-0.09103565,-0.014729986,0.020055117,0.06421517,0.046736386,-0.063570105,-0.0009530781,0.09356774,-0.021572642,-0.09002199,0.13188282,0.19065252,0.06313751,0.09404874,-0.06243597,0.115040734,-0.19501242,0.14254563,0.119108506,-0.045182455,-0.016420385,0.05234664,0.03332913,
0.015232002,-0.11436293,0.051739454,0.0634906,0.1659496,-0.069620855,0.09512023,-0.12254153,-0.20455071,-0.012258081,0.06274475,0.03799751,-0.2444134,0.16894326,-0.14046884,0.060481515,0.058681283,0.18577181,0.03678352,-0.058829237,0.007890528,0.05356953,0.044363853,0.015940683,-0.029218715,-0.13059823,0.039006792,0.26237372,-0.09954283,-0.0050905147,-0.012421481,-0.02559684,-0.17818372,-0.073926225,0.15613395,-0.04881345,0.008461876,0.19817455,0.13482627,0.12410113,-0.1054205,0.140963,0.00065529044,0.033913523,0.10384567,0.26413932,-0.099484056,-0.07239481,-0.011550799,0.022488492,
-0.059576795,-0.053949133,-0.12345171,-0.010445246,0.011865569,-0.040662173,0.083439805,-0.06855268,0.021510247,-0.016634423,0.06978646,-0.059250284,0.046072535,0.12937711,0.036926623,0.03625732,-0.17333165,-0.03239713,0.07400423,-0.069455944,-0.09310196,-0.02122319,0.057649698,-0.052054916,-0.08926248,-0.034032095,-0.0068538226,-0.009416597,-0.09079291,0.04311811,0.01776304,0.028596621,-0.07292454,0.013584909,-0.018306537,-0.09394882,-0.08288674,-0.038637772,-0.09017712,-0.0008287007,0.02478131,-0.12545492,0.04617857,0.074299596,-0.076612316,0.034152374,0.04140701,0.12797281,-0.002545837,0.11471261,
-0.16573873,-0.09356814,-0.13641733,-0.18877742,-0.047798764,-0.14766878,0.14304999,0.070181645,0.12914889,-0.10407862,-0.17178431,0.16756523,0.086083785,0.26608425,0.024716226,0.10679964,0.17997637,-0.04694853,0.17859893,-0.0036797083,-0.20557733,-0.18817158,-0.18276806,0.27521,0.11102472,-0.038319174,0.32333383,-0.00050852774,0.015540115,-0.059342142,0.1615345,0.041322365,-0.05549103,0.020327942,0.062257107,0.06504395,-0.19158266,0.016217122,-0.0418964,0.12761553,-0.02031742,0.29000896,-0.042620227,0.33062842,-0.03405049,-0.12974854,0.08762211,-0.08290593,-0.25336736,0.14520654,
-0.13230494,-0.003402575,-0.20435308,-0.024891045,-0.108352005,-0.00084689143,0.06927184,-0.01211019,0.029265381,-0.14745481,0.14603563,0.0019067206,0.072890416,0.034341972,0.08743971,0.035794824,0.032441422,0.033338614,-0.013055017,-0.03479757,-0.23257647,-0.3225351,0.10746882,0.030837942,-0.01638085,-0.039489057,0.108639486,-0.11938125,0.1594278,0.004109352,0.12948799,0.08293727,0.014842746,0.032253932,-0.09075751,-0.0609254,-0.16327527,0.048671883,-0.033119485,-0.033394165,0.021503042,-0.043972425,-0.07551118,-0.013465074,-0.002658022,-0.12963969,-0.042311866,0.13090841,-0.2823641,0.15213059,
0.14444485,-0.02614491,0.0012135069,0.05677709,0.03338986,0.1461779,0.058129407,0.11031897,0.12698615,0.0054097595,0.06823227,-0.14324735,0.13122699,-0.07578354,-0.07720499,-0.12727252,0.004448939,-0.06745877,-0.104029864,-0.038498387,0.063424125,-0.11818383,0.20988852,0.14916061,-0.026162373,0.1975279,-0.01866364,-0.04979762,0.064821005,0.023624938,-0.07208613,-0.11640246,0.17486009,-0.0028982537,-0.21251372,0.17122237,-0.092424564,0.045528695,0.026480917,-0.19839124,0.037062857,0.059590492,-0.011808066,-0.11315586,-0.060376298,0.011500089,0.04641222,-0.10830699,-0.089145616,-0.14121458,
-0.018840041,0.016039195,-0.007385864,-0.14723006,-0.020812888,-0.051528815,-0.07490437,-0.05632251,0.03229399,-0.090109155,-0.11789372,-0.10459126,0.038818162,-0.16124655,-0.10015452,0.137228,-0.100820705,0.028761975,0.06865045,-0.0088154925,-0.12100182,-0.14682963,-0.18854906,0.05953222,-0.06798885,-0.042675152,0.11688307,-0.13025114,-0.10197948,-0.011138946,-0.15151557,0.008447057,0.006097886,-0.03674551,-0.13206822,0.17284136,-0.062699676,-0.19067626,0.008664163,-0.042565975,0.032516412,0.03746141,0.07973937,-0.07757785,-0.03086916,0.008133943,0.031788345,-0.027505703,-0.06004342,0.16318607,
0.1685085,-0.12897754,0.09046304,-0.17768079,0.035892483,-0.023019843,-0.059425317,0.18198344,0.12394126,-0.16104133,-0.12845348,0.02618347,0.067636624,-0.06570001,-0.050235596,0.0245649,-0.03890348,-0.042835165,-0.08232375,0.08156108,0.053831708,-0.011075888,-0.15246493,0.057965245,-0.027088797,0.13498212,-0.03440095,-0.06772564,-0.06429534,-0.08054513,-0.28892553,0.025617145,0.024453992,0.023354372,0.025097359,0.083989285,-0.006814168,-0.042593684,-0.016937943,0.033633426,-0.036820892,-0.003289225,-0.04249726,0.034381136,0.046145733,0.12419602,0.05407975,0.020259222,0.052964654,-0.10127888,
-0.0064151343,0.20884354,0.07798004,0.19392498,-0.04130432,0.23939025,-0.19067915,0.14994794,0.07142987,0.25270247,0.07129713,-0.03995883,-0.052889742,-0.09841622,0.18598326,-0.104739964,0.0005262161,-0.151317,0.0052644806,0.16512047,-0.022773873,-0.074683376,0.12442981,-0.122267105,0.117924854,0.03268554,-0.13527125,-0.03200655,-0.03029926,0.049644373,0.09825551,0.116530456,0.17611091,0.055416804,-0.057663523,-0.026539812,0.115575455,0.029088167,-0.07215977,-0.020494178,-0.023995582,-0.15932766,-0.085357904,-0.043279227,0.03965854,-0.23253617,0.061222322,-0.093757756,-0.021217266,-0.035369795,
0.06085176,0.082139775,0.1655374,0.09921866,0.037935037,0.061165936,0.060216583,0.18016726,0.044004723,0.07668238,-0.1361323,-0.026530728,0.07116325,-0.0015560474,-0.08797438,0.16220643,-0.15083644,0.09518921,0.004870727,0.24733572,0.21300253,0.15451646,-0.17646226,-0.049235918,-0.19452544,0.12036476,-0.022515843,-0.078108534,0.026511593,0.052959815,-0.017897692,-0.045536783,-0.1200473,-0.06991764,-0.008557616,0.18487628,0.0629645,0.0044072275,0.09265297,-0.08716676,-0.040338967,-0.036176633,-0.10106967,-0.09164,0.1216968,-0.010898395,-0.042910863,0.05952839,0.02060991,-0.09180098,
-0.057916634,0.031421445,0.005930376,0.06653546,0.05185122,0.07941413,-0.018893886,0.03793932,-0.050155453,-0.00724929,-0.09772629,0.20827387,-0.07241788,-0.04851617,0.017207667,0.027370626,-0.24715355,-0.24473761,-0.027093586,-0.036347724,-0.011743041,0.022066057,0.0010557835,-0.1281391,-0.11345724,-0.055356033,-0.081665434,-0.07433716,0.16198224,0.19557384,0.11645438,0.023475975,-0.14182657,0.008126558,0.17425294,-0.014279957,0.022346748,-0.019927727,-0.070677824,-0.08003176,0.09439416,-0.25401065,0.06422473,-0.16979134,0.09481844,-0.042286087,0.0030347502,0.20263459,0.031795707,-0.057382204,
0.13802394,0.022038313,0.14854494,-0.03714042,0.151463,-0.07098193,-0.2613593,0.010143566,0.082975805,0.040717833,-0.07645873,0.14034228,0.14752276,-0.07774787,0.22706488,-0.28653625,0.26926413,-0.25930306,0.005181604,0.06008592,-0.061057344,0.21335655,-0.115638755,-0.31183633,0.26292545,-0.073964775,-0.2251591,0.24347839,-0.053327434,-0.10178376,-0.06881831,-0.06770877,0.08646609,0.06911321,0.08035498,-0.21059287,-0.019017473,-0.18255027,-0.3215163,0.15239555,-0.016664654,-0.04126796,0.020926125,0.15358186,-0.19420879,-0.115534194,0.04082121,-0.034138866,0.10471863,-0.15942638,
-0.12719424,0.07097688,-0.19181325,0.1109299,-0.18406768,0.06913723,-0.010270147,0.004722143,-0.111069225,0.019720078,0.1342431,-0.12239391,0.001519851,-0.032923687,0.0013231497,-0.04698155,-0.031131603,-0.08307596,-0.08196924,-0.17524277,0.1222972,-0.06489416,0.05162273,0.023401514,7.792587e-05,-0.0065759844,-0.028943816,-0.09090154,0.0028190124,-0.055612598,0.09645846,-0.03796057,0.13203372,-0.016761303,-0.14603761,-0.07380924,0.056746624,-0.17717397,-0.16965868,-0.18147133,-0.020743014,0.07972427,-0.022193579,0.003086886,-0.12592632,-0.13049501,0.029921817,-0.01092311,0.063216195,0.12905055,
0.041531414,-0.030678274,0.03778496,0.001751207,-0.058694273,-0.04784792,-0.099771634,0.036948856,-3.5886973e-05,0.010172909,-0.19252402,-0.0009886576,-0.08699429,-0.18110767,0.032399498,0.100054376,0.017422559,-0.041987367,-0.018843243,-0.11015699,-0.105627194,0.026018092,-0.115897015,0.0037901253,-0.11693327,0.09390608,-0.013656452,-0.065672696,0.0017303196,0.093989424,-0.106588244,0.023016823,-0.14312218,-0.009927044,0.09815398,0.043818146,0.22182529,-0.044432297,-0.07309195,0.02150371,-0.05826805,-0.0074652866,-0.049654383,0.012865925,-0.079183355,-0.12754232,-0.10334445,-0.095786855,0.06349332,-0.08508699,
0.06562329,-0.054420285,-0.04409653,-0.16046457,0.120295696,-0.17426509,0.0011584673,0.014178778,0.11923244,-0.064977184,-0.06065016,0.12542935,0.059916575,-0.0025037904,0.17557569,0.087551154,0.20280153,-0.031896133,-0.072427996,0.21715029,-0.18850636,-0.04316327,-0.15437895,0.014134938,0.2860849,-0.013735502,0.06143433,-0.0042507215,-0.13741462,-0.24527387,0.05498525,0.03450851,-0.0026022007,0.1453219,-0.029198432,0.0072698127,-0.09687889,-0.16467753,-0.117292106,0.18089183,-0.010401245,-0.041549806,0.07390917,0.24012215,-0.10299501,-0.043449596,0.1427942,0.03208865,-0.047480453,0.023159677,
0.13993096,-0.07385858,-0.050874222,-0.17337142,-0.097536534,0.05686045,0.060514856,-0.08029936,0.24796331,-0.17262457,0.0605078,-0.20621538,0.19448632,-0.041478027,-0.01707525,0.012745535,0.030336844,-0.16538537,-0.112167254,-0.045712136,-0.1549503,-0.1226296,0.09383901,-0.009078256,0.118542574,0.2007235,0.048371315,-0.11914109,-0.023662806,-0.19790131,-0.08142804,0.01911005,0.11390177,0.09344261,-0.17323072,0.041052047,-0.14346032,-0.24583271,-0.29709306,-0.105681665,0.03775961,-0.0268408,-0.03641821,0.123061925,-0.22605203,-0.118019655,0.2914617,-0.066367194,-0.027378567,0.035557102,
0.11191293,0.038210247,-0.1045691,0.009964011,-0.072582185,0.21649294,-0.021315604,0.13923712,-0.01858561,-0.037491426,0.11615936,-0.27992117,0.14840797,-0.05374761,0.011298191,-0.09689509,0.11883872,-0.12473533,-0.057546332,-0.03722976,-0.10054754,-0.1885637,0.16031128,0.03300787,-0.004563036,0.119651094,-0.025090426,-0.02472682,-0.002580925,-0.08492841,0.009731783,0.12636101,0.117849275,-0.06508892,-0.2197217,0.012002608,-0.08547952,-0.16739349,-0.12778236,-0.14407066,-0.03379616,0.13054538,-0.005902801,-0.006708873,-0.20476975,-0.21615294,0.045951895,-0.030573558,-0.11167418,0.046633698,
0.03280063,0.0614856,-0.0525231,0.0119598685,-0.011491384,0.18820629,-0.062517,0.075032175,0.08668303,0.053738512,0.03802042,-0.16969132,0.17900077,-0.11869591,-0.10243797,-0.08874747,0.054580342,0.005990679,-0.03780101,-0.015617342,-0.07396667,-0.09697017,0.097887084,0.04414661,0.01852317,0.05294034,0.0060232957,-0.044106796,0.08436386,0.015855452,-0.053647146,-0.028262377,0.10108455,0.03789893,-0.15645513,0.05617617,-0.049669094,0.045236055,-0.0835403,-0.12309024,0.12490534,0.03816485,-0.15875499,-0.07097967,-0.023826722,-0.18439883,0.05883202,0.035622988,-0.06724853,-0.012004035,
0.112192124,-0.024561433,0.03654107,-0.0065581007,-0.028869728,0.02634269,-0.03883527,0.08697736,0.029824443,-0.026627518,-0.061014667,0.08932062,0.052958265,-0.08741114,-0.00046971702,-0.03746196,-0.07690819,-0.13634756,-0.042741396,0.027687013,-0.00909116,0.096049085,-0.06554796,0.019589841,0.029434385,0.08224589,0.0070373183,-0.031178819,0.005784632,0.1619137,-0.005083711,0.033387844,-0.0074422495,0.035027508,0.023995139,-0.036344063,0.086867586,-0.016437735,0.02046073,-0.035069488,0.04459191,-0.15775038,-0.08596863,-0.050786372,-0.036074456,0.009979378,-0.015431641,-0.025670627,-0.064815596,0.009427736,
0.04575196,-0.044000767,0.009855794,0.0038942995,0.037544254,-0.004418359,-0.011872425,-0.01949529,0.03957465,0.06180724,-0.03277408,0.010165232,0.048168384,-0.035981435,-0.03578611,0.0431498,-0.01126925,0.045289654,0.110664904,-0.017857159,-0.018133923,0.0025778483,-0.034267478,0.102688596,0.00038531318,0.095727496,0.016274769,-0.04473082,-0.09745369,-0.03806941,-0.073719375,-0.032764096,0.066966645,0.009360425,-0.049781844,0.08966991,0.0054500564,-0.043470103,0.068799995,-0.08280412,-0.0011098793,0.055595115,0.1005398,0.023703877,-0.020629322,-0.011878254,0.050050497,-0.05757301,0.062233225,0.039948106,
0.02555361,0.06166438,0.11927269,0.06558174,0.07347996,0.09895114,0.03924725,0.0033475328,0.12512796,0.112662815,-0.044847433,0.009295536,-0.0016380484,-0.083637945,-0.050462667,0.06982607,-0.013489802,-0.036139898,0.1006061,-0.020740027,0.15393925,0.04721218,-0.018100107,0.02147477,-0.11867474,0.06022859,0.006033879,0.025952958,-0.006233271,0.14226817,-0.09223587,0.013953412,0.0202538,-0.05847017,-0.025565099,0.06961259,0.05724498,0.04356516,-0.086922646,-0.21022497,-0.012447981,-0.06338459,-0.094214015,-0.06262873,0.063395955,-0.034210335,-0.18818946,-0.06899687,-0.009144384,-0.023319187,
-0.0636759,0.13198154,0.023679327,0.19935463,0.122803226,0.11564989,-0.04730093,-0.11061293,-0.035458997,0.18739422,-0.02133483,0.101511315,-0.08541995,0.08113791,0.019673103,-0.009047361,-0.00764573,-0.023419082,0.2553931,-0.09257533,-0.0076112826,0.08355426,-0.0047689993,0.026679788,-0.24275641,-0.0057465513,0.063835315,-0.009995571,0.09632249,0.18923096,0.06846424,-0.06323079,-0.130146,-0.24199893,0.032048274,0.026291259,0.022542657,0.050802782,0.08140057,-0.15506282,-0.15245612,0.047098048,-0.07308343,-0.02883133,0.048354845,-0.10034752,-0.23318091,0.0031603144,-0.06716601,-0.04367971,
0.011273175,0.09463419,0.04263167,0.06533724,0.027875224,-0.0014769484,-0.08025022,-0.07199264,-0.11354024,0.04473513,0.014344771,-0.07733866,-0.08705857,-0.011048691,0.13597511,-0.23634984,0.17068683,0.07849638,-0.15859874,0.06256119,0.0042147716,-0.016661763,0.019290075,-0.09030735,0.11528438,-0.11195845,-0.20517553,0.13666657,-0.1511831,-0.06567236,-0.016688347,-0.033651643,0.11520852,0.07871187,0.09261043,-0.17156845,-0.10068075,-0.063524,0.0102405995,0.16668734,-0.002093814,-0.090379015,0.032055434,-0.011194874,-0.09163371,-0.09305246,-0.051918868,-0.050295547,-0.02482121,-0.13512777,
0.24119169,-0.15050362,0.18470511,-0.072759196,-0.09323708,0.052382644,-0.031452347,0.029180491,0.036146626,-0.2178603,-0.033989925,-0.16441491,-0.020909013,-0.13196065,-0.22906817,-0.15288459,-0.13642697,0.04202414,-0.27624702,-0.13865148,0.16023955,0.10538323,-0.027839875,-0.08165232,-0.049811233,-0.018869221,-0.059083443,0.04641333,-0.10373547,-0.03934282,-0.27854213,-0.008590404,-0.1509799,0.05287148,0.00039507536,-0.095841154,-0.009684852,0.024752071,-0.06058606,0.0822447,0.11727327,-0.029295608,0.077052996,-0.16382685,-0.037395313,0.19884612,0.09234806,0.09124584,0.03013148,-0.13970496,
-0.004963698,0.0558807,0.025114039,-0.021319201,0.202291,-0.10699059,-0.13933264,-0.03847139,-0.21692885,4.2658405e-05,-0.031273697,0.018800987,-0.22216296,-0.0824635,-0.008908668,-0.029501457,-0.057311337,-0.04643165,-0.1495797,-0.030581553,0.047549516,0.080876276,-0.042204134,-0.17081793,0.18720628,-0.15661699,-0.077951685,0.12652004,-0.12003043,-0.015334889,0.049016993,-0.046087157,0.09438035,0.14457704,-0.018872201,-0.1448686,0.076555155,0.030541385,-0.104535714,0.098559044,0.050267998,-0.08792551,0.14678708,-0.13205688,-0.094819315,0.12989827,0.042759985,-0.06934695,0.20477562,0.08657204,
-0.1442972,0.023211725,0.1286462,0.016493814,0.16577841,-0.04204702,-0.016827328,-0.0082428185,-0.06942192,0.13547508,0.00978812,0.043031525,-0.15800244,-0.047304425,-0.08192217,0.15493965,0.07697765,0.0761608,0.08705444,0.0672283,0.16357067,0.14204305,-0.05531672,0.14318794,-0.092674464,-0.061949633,0.06739529,0.15297998,-0.11749763,-0.08857076,-0.048587434,-0.05041817,0.06295762,-0.10739449,0.12862596,0.19547853,0.20410109,-0.06287815,0.15738085,-0.07227376,-0.10266054,0.013603582,-0.08140212,-0.06930996,0.11198785,0.072664544,-0.15641584,-0.07508775,0.0817883,0.076696664,
-0.11349245,-0.046447396,-0.097751915,0.045617376,-0.11003537,0.01456285,0.051052064,-0.1081349,-0.06554107,-0.010049928,0.15652049,-0.12893195,0.0340257,-0.011849956,0.0018657672,0.0062922793,-0.026091268,-0.03867734,-0.05068481,-0.13136141,0.101076,-0.0039345934,0.062631726,-0.07965326,-0.07679698,0.038181607,0.022907302,0.10029533,-0.029422924,-0.0646077,-0.009402547,-0.010478214,0.006950978,0.06817449,-0.18246932,-0.06340228,0.006273916,0.005268449,0.037521716,-0.078178495,0.06710009,0.13681652,0.07154174,0.021895487,-0.05605605,0.045337543,-0.038456716,-0.095199205,-0.047196016,0.12397382,
-0.08957479,-0.05994264,-0.1188531,-0.023145804,-0.023742238,-0.06553482,0.15853912,-0.030474784,-0.071886726,-0.022571249,0.1828233,-0.07494922,-0.06914286,0.08336756,-0.084223226,-0.051153082,-0.07953819,0.0379456,0.010982487,-0.07026961,0.13508523,-0.002967122,0.08096757,0.008011823,-0.029970739,-0.08296341,-0.04004932,0.048053965,-0.03356014,-0.04547748,0.093638636,-0.10093486,-0.0804433,0.064889684,-0.020464644,-0.0010363107,-0.12506309,0.0735034,0.08039101,0.08624157,-0.042091046,0.035093423,-0.0133071495,0.008355917,-0.013958651,0.11736409,-0.058846008,-0.14119986,0.06853836,0.060703944,
-0.14652865,-0.062419806,-0.11279003,-0.07208925,-0.119837165,0.046017464,0.1647612,-0.14660567,-0.09598453,-0.047911517,0.07358154,-0.010300105,-0.06499295,0.15452896,-0.11420258,0.0622672,-0.08956437,0.08491438,-0.0044422764,-0.03019781,-0.067847595,-0.1458956,0.10190555,-0.002182345,-0.049212754,-0.08926655,0.084197365,-0.07867537,-0.05302284,-0.022471894,0.10761928,-0.0022371768,-0.1309941,0.016796043,0.020123612,0.006354563,-0.14268582,0.08744856,0.06591398,0.038395304,-0.023249388,0.08874285,-0.038450778,0.05967012,0.062408116,0.10857217,-0.028401364,0.021359881,-0.06742833,0.09579431,
-0.0623341,-0.028340464,-0.19793588,-0.0102694165,-0.1328384,-0.088175006,0.05586106,0.023373516,-0.060633827,-0.18342379,-0.05360854,0.22110632,0.06598439,0.18416071,0.122456945,0.034920044,-0.061606187,-0.009425683,0.07072073,-0.033925373,-0.22546153,-0.24438037,0.06240621,-0.0821872,0.051735174,-0.05388276,-0.07952187,-0.130246,0.19162746,0.06572451,0.09278728,0.10314714,-0.16843742,-0.0067842826,0.15189417,-0.12364867,-0.2424436,0.11545353,0.021603817,0.16355953,0.0680989,-0.0069125635,-0.0831817,0.07335099,0.10942834,-0.014970781,0.068869546,0.14086245,-0.13269779,-0.0850899,
0.15361345,-0.0016231855,0.23352207,-0.114021316,0.18499137,-0.068759926,-0.10680712,0.039807655,-0.0162289,-0.1556375,-0.07200335,0.033165935,-0.04511299,-0.1764209,0.14558847,0.030566584,0.09035605,-0.0029925052,-0.03184649,-0.02326225,-0.034264177,0.104890555,-0.015872877,0.08177413,0.21503906,0.0010282863,0.035298,0.0609734,-0.10733043,0.040754136,-0.048053615,-0.06424479,0.20082483,0.034353685,-0.11981265,0.116009794,0.049095172,0.016306365,-0.1101678,-0.011505139,0.04006336,-0.10745047,0.121388674,-0.010378298,-0.07795154,0.13800308,0.003147957,0.029660221,-0.026750268,-0.0724956,
-0.07568523,0.14326078,-0.04873351,0.13023193,0.075233735,0.09869929,0.044998456,-0.07467771,-0.027311306,0.036893476,0.10473422,0.032489177,-0.06871089,-0.08672995,0.040176526,0.03289398,-0.11816713,-0.08310401,-0.10850552,-0.06513806,0.012437239,0.015656874,0.09065219,0.040775865,-0.07414912,0.040379062,-0.023331754,0.062340874,0.034909215,0.089620255,0.03384872,0.038653914,0.088069454,-0.111971796,-0.1679007,-0.02557613,0.02519318,-0.04350419,0.024901446,-0.053670045,0.06471309,-0.028386677,0.0128753465,-0.14221948,0.0018241421,-0.040653415,0.022934066,-0.013885767,0.08142792,0.07435533,
0.11242327,0.052699868,-0.06008579,0.054795545,-0.07545078,-0.07240184,-0.11542842,-0.09829215,0.049416147,-0.023913728,-0.05174383,0.057067953,0.024495462,0.020084212,0.024611356,-0.021854028,0.04253192,0.067628734,0.032453883,-0.0075399736,0.058673352,-0.018931601,-0.05614152,0.034159124,0.03340758,-0.033134334,0.04156777,-0.0012806382,0.011667858,0.026313959,0.008684039,0.025964137,0.03299677,0.02869873,-0.06987903,0.037721734,0.06873821,0.016667044,-0.06392205,0.008736391,0.066234715,-0.111853465,-0.003347293,0.057689074,-0.08154725,-0.07662547,-0.076296926,-0.017823191,-0.059957836,-0.026580008,
0.02941046,0.078449585,-0.04240516,-0.08291404,-0.06923806,0.029326342,-0.073771,0.040796578,-0.041609604,-0.09257809,0.015239101,-0.04242192,0.0064574657,0.01677084,0.09841289,-0.027788648,0.047928106,-0.066421725,-0.12010428,0.09169966,-0.06450301,-0.057960626,-0.071999416,-0.058276284,0.17602052,0.0362648,-0.06353102,-0.13496298,0.051817603,-0.043878507,-0.14229862,-0.064282216,0.07481128,0.030453894,-0.08401809,0.05656528,-0.07221221,-0.075084426,0.07758731,0.08572612,0.014092651,-0.0510022,0.014619372,0.07615335,-0.090347216,-0.042226966,0.12874904,0.05785922,0.022794444,0.025074111,
0.021286031,0.14119299,0.05748603,0.19596095,-0.05728241,0.20104063,-0.11280708,0.07455221,-0.03825423,0.20117617,0.009744888,0.021575112,-0.04408252,-0.09163333,0.13234302,-0.14921229,0.010247629,-0.061828814,-0.0624806,-0.020911362,0.023246003,0.10842072,0.0866904,-0.11325411,0.04865322,0.02358339,-0.19803339,-0.02590961,0.07466473,0.0556375,0.03488562,0.09036044,0.09857959,-0.101467274,0.010693047,-0.10416296,0.028010884,0.07336806,0.07734334,-0.05680526,-0.008501801,-0.15948257,-0.13747121,-0.1885603,0.14955826,-0.15921623,-0.12441493,0.06557474,-0.044359416,-0.08198481,
0.03771541,0.036043722,0.034719158,0.09514662,0.027231041,0.053759072,0.043180168,0.06857894,-0.04746933,0.09525229,-0.029645115,-0.037211146,-0.06974517,0.07058452,-0.112477094,0.0046933615,-0.010911937,0.11578519,0.004935986,0.11162884,0.024741676,0.06082017,-0.061267156,-0.16098286,-0.16187042,-0.0770656,-0.078596555,-0.012392084,-0.07154997,-0.014762752,-0.12430557,-0.09827785,-0.03442843,-0.01408172,0.12882276,0.039309997,0.12587263,0.053313285,0.10250902,-0.122742616,-0.055649593,-0.0123776235,-0.08283247,-0.0027056579,0.22817251,0.111256905,-0.19582357,-0.030141586,-0.04840237,-0.12609991,
0.0041396124,-0.021844983,0.02465987,-0.07376781,0.15814374,-0.09848476,-0.024649646,-0.049183436,-0.060803626,0.0021642086,-0.026909955,0.06419254,-0.011798839,-0.060454756,-0.009048863,0.026456034,-0.037751116,-0.11401929,-0.10094176,0.031514455,0.025649467,0.0876762,-0.03453803,-0.07484227,0.14670907,-0.12923515,-0.03593114,0.13209932,-0.07834525,-0.08114501,0.019673632,-0.109893054,0.0649789,0.011097817,0.12284315,0.028661933,-0.06466978,-0.008842882,-0.02642201,0.16497171,-0.03980021,0.0791103,0.04612707,0.0036004093,-0.0031014127,-0.016424136,0.10149352,-0.04069699,0.10749639,-0.056074485,
0.062434647,-0.03669067,0.015380573,-0.20933193,-0.1534544,-0.083831884,-0.032835636,0.050520875,0.026737167,-0.1753643,-0.06609426,0.26065445,0.08677614,0.08587817,0.13868508,0.011360159,0.073545985,-0.0026639095,-0.06923263,0.04276813,-0.12194761,-0.09809523,-0.096175745,-0.035646494,0.18599485,0.10894855,-0.11854292,-0.17070383,0.08826361,-0.06322519,-0.024082944,0.20871532,-0.09597088,0.27614594,0.03933217,-0.1215618,0.067968175,-0.11187763,-0.13630264,0.14077228,0.2364205,-0.18592459,0.07686399,0.11189741,-0.008578124,-0.06799321,0.15037638,0.089732416,-0.002579897,0.16040982,
-0.08450764,0.08106358,-0.17953517,0.1228375,0.0058414964,-0.051877446,-0.08038594,-0.14077345,-0.037122287,0.23644896,0.09342736,-0.03150625,0.066931136,0.07611639,0.047821395,-0.10821478,0.18862674,-0.008899454,0.03603592,0.107062995,0.069815375,-0.12880357,-0.036261015,-0.07101988,0.16294658,-0.117883645,-0.111427695,0.20304206,-0.09895958,-0.13622792,0.105743535,-0.060262337,-0.05551261,-0.13733509,0.083148785,-0.07324612,-0.07235192,-0.14792661,-0.048884816,0.11687561,-0.08535166,0.087810285,-0.11362953,0.1491004,-0.18708706,-0.043730754,-0.14310041,-0.08492937,-0.0239615,0.00075101096,
-0.10898367,-0.016757678,0.027286809,-0.025535231,-0.12198878,0.028599594,0.19940144,-0.07932453,-0.052835774,-0.12367717,-0.009798714,0.027121808,-0.0181154,-0.005210857,-0.09079317,-0.068634994,-0.22351453,0.09057124,-0.098894134,-0.045225263,0.026767675,-0.07218049,0.03590042,-0.07336437,-0.1700584,-0.106066264,-0.0058872635,-0.17781068,0.07333267,0.073769584,-0.11163215,0.044628266,-0.12689929,0.103163615,-0.0761437,0.016466172,-0.015757076,0.128741,0.08528645,-0.08680582,0.0981327,-0.068644375,-0.03110207,-0.2029715,0.01982103,0.08447316,0.079531625,0.016227264,0.037764065,0.029194957,
0.036418926,-0.022718137,0.04988174,-0.012846313,0.12155499,-0.003744057,-0.0947627,-0.02294572,0.13459499,-0.07414165,-0.05454793,-0.029867252,0.0014139946,-0.04815446,-0.011576048,-0.03462683,-0.029296907,-0.010265929,-0.066616684,-0.09903751,0.0088161575,0.15449995,-0.024910202,-0.056173936,-0.08231083,0.059859216,-0.0778916,0.06880271,-0.039677214,0.098113865,0.0084914565,0.015981786,-0.07378243,0.05955584,0.07283075,-0.14580266,-0.095610805,0.058718927,-0.075434014,0.035565753,0.089358315,-0.0013160784,0.12588584,0.0320557,-0.017573103,0.032161303,0.052353278,0.07922864,-0.0053744935,-0.07522748,
-0.1319766,-0.0064818934,-0.11069016,0.029059442,-0.09422738,-0.069633245,-0.11486768,0.08395299,-0.0079478575,0.012023992,-0.035002053,0.07586505,-0.054956995,0.12881304,0.17806704,0.00060158246,0.04105281,-0.040240962,0.14830336,0.10064765,-0.047897037,-0.011305229,-0.03269038,-0.12778486,0.08443241,-0.090058036,-0.041146178,-0.06472087,0.04379071,-0.09949294,0.04164565,0.033437192,-0.073076874,0.022011258,0.17628458,-0.019114021,-0.11956265,-0.08815664,0.000896794,0.21292603,0.04606564,-0.0505705,0.04875304,0.20709392,0.013185277,-0.05713216,0.04591121,-0.06252144,0.029491838,0.046037294,
-0.055501513,-0.10834945,-0.13080896,-0.056885008,-0.0806111,0.030664714,0.048647456,0.01709814,0.014158153,-0.08426503,0.13459016,-0.050599113,-0.034550574,0.12726717,-0.12716149,0.033115555,0.01817403,0.08493206,0.05096265,-0.06504651,-0.04106443,-0.12660915,0.1460798,0.08561887,-0.16106732,0.11435106,0.09526734,-0.14292197,0.1126813,-0.050222017,0.03725951,0.09035227,-0.0042875963,0.052231856,-0.055724837,0.03573061,-0.21085429,0.07875701,-0.0046235262,-0.08598355,0.027852667,0.16428073,-0.09211452,0.009961738,-0.0256421,0.021356346,-0.0069986265,-0.03050956,-0.11440103,0.066829115,
-0.0029335243,0.04084269,-0.13803245,0.008075132,0.040131424,-0.019608421,0.05330798,0.06491994,0.01867917,-0.027993625,-0.12252718,0.02335779,0.032213364,0.015253223,0.07276281,0.116660714,-0.11044687,-0.04956801,0.14368477,-0.1129708,-0.14586538,-0.10415699,-0.030159647,0.09567507,-0.057994176,-0.02070375,0.08555944,-0.06447452,0.016284555,-0.0092049455,0.1385768,-0.02180923,-0.098414816,-0.05764087,0.020205664,0.02965115,-0.10394224,0.014056688,0.04953728,0.021854812,-0.055926464,-0.028149405,0.04727585,0.018545788,0.04341801,0.015649572,0.021454843,0.034339402,0.0013949642,0.044172876,
-0.083465174,0.042294934,0.0070886314,-0.030139204,-0.011225772,-0.041875742,-0.06154102,0.10019627,-0.008589654,0.028684083,-0.06415093,0.026518954,0.041566007,-0.04637377,-0.014634634,0.0633974,0.05464564,-0.00523901,0.039012365,-0.05532257,-0.017903097,-0.08094679,-0.028924251,-0.064646326,-0.16275136,-0.032964,-0.019336417,0.015525994,0.04953264,-0.037212007,-0.013867589,0.091276266,-0.044817336,-0.036446556,0.018880488,0.008939869,-0.089081764,-0.076961815,-0.043121994,0.021793049,-0.034269646,-0.076327145,0.016552534,0.060042467,-0.08976308,-0.1112885,0.012418705,-0.029850082,-0.09058889,-0.09824887,
-0.060646337,-0.029246617,0.062885664,-0.048550304,-0.02537548,0.095396265,-0.05466511,-0.033086784,0.13895482,-0.0052394588,0.07145238,-0.10071224,0.13744117,0.04145096,-0.08580621,0.032193463,0.029963806,0.05799657,0.050188888,-0.036254443,0.11878312,-0.07252609,-0.036103975,0.10003748,0.002333212,0.067834266,-0.0036149877,0.09694511,-0.1683051,-0.0012958063,-0.10975031,-0.10606593,0.011899776,-0.102430955,0.036670562,0.031289082,0.08054226,-0.101495266,0.0041341647,-0.08875964,-0.16307773,0.046351347,0.030727828,0.04276294,-0.010403315,-0.024753744,-0.10506683,-0.094322376,-0.06351209,-0.022034109,
-0.16711299,-0.040355053,-0.1375695,0.22070967,-0.1217734,-0.1690929,0.040594645,0.037581917,-0.0077062016,0.2505022,-0.037663314,0.0024149418,-0.011473302,0.18115431,0.0020712684,-0.0047519053,-0.012196002,0.037253387,0.034931146,-0.054297317,0.14268968,0.054116588,-0.055381652,0.012368455,-0.14707892,-0.064728886,-0.0031773369,0.17724834,-0.035114344,-0.16490406,0.038691387,-0.045699198,-0.17911677,0.014261237,0.112603664,-0.071396224,-0.018150296,-0.05953189,-0.017816614,0.09765763,-0.2848787,0.14105095,-0.05319747,0.175909,0.07290288,-0.071203485,-0.16382933,-0.06297965,-0.07151915,-0.04559165,
-0.13682261,0.0071865264,-0.021656193,0.03762172,0.025298499,-0.09000447,-0.0814075,0.03240573,-0.21895488,-0.052030046,0.12319175,0.039512333,-0.29478186,-0.022648033,-0.02628633,-0.09557108,0.023648553,0.12269577,-0.11828632,-0.015014646,0.036186732,-0.016425226,0.06471572,-0.09443948,0.07722702,-0.06948424,-0.09139137,-0.09271335,-0.093247235,-0.1648426,-0.09349162,-0.014000243,0.044076033,0.11863442,0.14219719,-0.07626951,0.029667964,0.16956928,0.20963806,-0.053538203,0.01368813,0.013892985,-0.08229925,-0.14440776,0.14170104,0.10791139,0.019684186,-0.12010679,-0.060087238,0.04787211,
-0.05001163,-0.07670878,-0.02704714,-0.023081308,0.07579547,-0.06543606,0.030976824,0.0645537,-0.09380259,-0.012766463,0.050276887,0.002524484,-0.06881618,-0.07250613,-0.05555343,0.035697218,-0.13492447,0.05688591,-0.01953689,-0.093716286,-0.029024998,0.0073414193,0.08956088,-0.075723045,-0.016086835,-0.07479546,-0.042397387,0.06743062,0.0638513,-0.14676632,-0.023274306,-0.0931103,-0.07335272,-0.06125614,-0.004896505,-0.08751031,-0.0032046167,0.03953295,0.095482275,0.13133402,0.12613423,-0.016872874,0.02472231,-0.107844986,0.13490415,0.20557985,-0.093815535,-0.056869686,-0.03133758,-0.113670826,
-0.13750726,-0.16251077,-0.107463285,-0.027713997,-0.17163368,-0.23984851,0.13718793,-0.00848589,0.021763088,-0.080289975,0.108660065,-0.06165679,-0.03958566,0.13593498,0.025928799,-0.07651715,-0.119931094,0.05225459,-0.17382875,-0.19299595,0.11395958,-0.09328354,0.054176304,-0.18357779,0.06667477,-0.07502977,-0.15670432,-0.057141673,-0.08609446,-0.056866918,-0.087325074,0.09983762,-0.2890427,0.014245753,0.16027819,-0.24007905,-0.1395877,0.09290793,0.006244715,0.1381946,0.16999792,-0.056376822,0.14968804,0.041229665,-0.015321516,0.014656968,0.08167922,0.10573057,-0.016135218,0.10047674,
0.14667761,-0.24770142,0.003636318,-0.3356829,0.014090166,-0.13016324,0.18936941,-0.06542585,0.06876646,-0.21793191,-0.1498274,0.077310376,0.124943696,0.16719726,-0.039360277,0.1339667,0.17075938,-0.02217004,0.10276864,-0.028780553,-0.08187165,-0.08135907,-0.2590447,0.24020751,0.057409275,-0.0049252366,0.18933164,-0.04898475,-0.19257523,-0.19793093,0.028586475,-0.13480407,0.06070693,0.16178484,-0.12798576,0.16429327,-0.16497394,-0.12901355,0.060111932,0.1395753,-0.22681512,0.22513756,0.13863812,0.23619032,-0.1625407,0.11078146,0.14269222,0.07284544,-0.08250124,0.053296797,
-0.030644512,0.06756257,-0.05541399,0.04144778,0.05279757,0.23701663,-0.011936911,-0.08699832,-0.06684929,0.042709507,0.10178349,-0.10097,-0.0035564909,-0.021379959,-0.050495304,-0.022208774,-0.08226402,0.03385325,0.02557784,-0.1688766,-0.09552679,-0.14730872,0.22781098,0.04571101,-0.0760995,-0.11047815,0.06351792,-0.13619228,0.15577427,0.18528175,0.063428424,0.17303614,0.028864894,-0.10845021,-0.048116058,0.013865897,-0.13067353,0.13525572,-0.07260639,-0.11619578,0.19915892,-0.028405022,-0.07452869,-0.17871399,-0.07275141,-0.014583572,-0.15787837,0.009660299,-0.15551695,0.15993436,
-0.035537936,-0.011904257,-0.070910096,0.13058816,0.0032693867,0.0541268,0.05511418,-0.08591315,0.022142986,0.040013526,-0.03412799,0.055470705,0.04036345,0.21708734,-0.029011622,0.06691804,-0.10447115,-0.0054088947,0.2234375,-0.11677478,-0.1389626,-0.073931925,0.088105045,0.12856418,-0.14041588,-0.047338575,0.119831674,-0.015495666,0.08075129,0.067039326,0.116606936,-0.06985063,-0.1853482,-0.21483566,0.039996445,0.0034875693,-0.035826523,0.105500646,0.009547039,-0.14994067,-0.0005949846,0.02834326,-0.056465637,0.0930048,0.06288881,-0.043162696,-0.1292438,-0.12164262,-0.017764268,-0.022009812,
-0.115608186,0.12982208,-0.034500875,-0.0038753476,0.061756987,-0.007910341,-0.085196584,0.07823385,-0.11209558,-0.13264912,-0.07228414,-0.0022583462,0.067320466,0.065999195,0.09613726,-0.10223497,0.1166364,-0.015936306,-0.062273793,0.21594654,-0.16011865,-0.15644863,-0.03622971,-0.058013387,0.023416372,0.0043688817,-0.087442555,-0.13087246,-0.035208233,-0.033378556,-0.016997278,-0.0017410063,0.022515068,0.06297465,-0.045924734,0.014807788,-0.05305352,-0.043003377,0.04063708,0.024564166,-0.111129895,0.16920815,-0.021636412,0.045497607,0.012830935,0.0199112,-0.033520676,-0.09048495,-0.19505753,-0.099723294,
0.19286594,-0.021084903,0.15585116,-0.0469351,-0.028569652,0.011505254,0.0077101304,0.07895574,0.10712502,0.02020737,-0.11945618,-0.016315756,0.13296118,-0.2004771,-0.0073901536,0.048994653,0.030742165,-0.007926092,-0.12600909,0.11344607,0.025064556,0.1428053,-0.21701397,-0.051136255,0.07811648,0.1290549,0.03089056,0.06890558,-0.13808149,-0.009380876,-0.1545298,-0.08172569,-0.061030973,0.02643577,0.06543094,0.0027977175,0.07953678,-0.105818935,-0.1248336,0.1423373,0.00010846103,-0.14818422,0.17585579,0.020025637,-0.028074421,-0.05669952,0.10831165,-0.04949142,0.10747418,0.042310685,
0.0029107872,0.16073276,-0.083380364,0.09257449,-0.019674215,0.06727896,-0.07435104,0.00057321397,-0.019698141,0.09605118,0.10111134,0.03457136,0.049885694,-0.09029078,0.17197952,0.03523722,0.073998585,-0.045243595,-0.03355503,0.13208334,-0.08545061,-0.16425066,0.091892056,-0.05731895,0.07100742,0.05076561,0.033282977,-0.16018945,-0.03158867,-0.07594785,0.027454203,-0.0018331537,0.17579745,-0.055369828,-0.118714586,-0.05185556,0.033460893,-0.04682338,0.0059957188,-0.15375073,-0.051706098,-0.0652328,-0.2230449,-0.036671434,0.021527505,-0.1571034,-0.07051375,-0.22755907,-0.15519209,0.002958628,
0.11231512,-0.0600962,-0.03489934,-0.06554127,-0.054148972,-0.04840124,0.10299654,-0.10277014,0.05855884,-0.0026352936,-0.07237334,-0.08697624,-0.0982715,0.011762905,-0.13316621,0.084174044,-0.02157066,0.045386452,0.059193328,-0.009104624,0.022430254,0.02135752,-0.052171927,0.17475621,-0.20896327,0.04067575,0.08277517,0.08922861,-0.119894065,-0.061752643,-0.21118915,-0.19923021,-0.1328134,-0.11067033,0.057340767,0.21407881,0.026006592,0.044127464,0.15004326,-0.061131723,-0.15168092,0.16477585,-0.117518455,-0.09155184,0.05146617,0.043010987,-0.03518382,-0.16330984,0.0051272474,-0.092601985,
0.15925182,0.073681965,0.18307771,0.019563137,0.06527882,0.18834908,-0.057637546,-0.058288533,0.07317316,-0.05385665,0.021313835,-0.14476977,0.039940074,-0.16690733,-0.16731204,0.00900652,-0.05145046,0.008241303,-0.09016818,0.04331873,0.0907887,0.02556014,-0.045324415,-0.010908079,-0.026122952,0.033002183,-0.015852675,-0.07706956,-0.03949126,0.000793179,-0.1911495,-0.12488062,0.14818574,-0.012219214,-0.1267431,0.072888955,0.050064627,-0.09806622,-0.10293935,-0.11005724,-0.101159036,-0.11470936,-0.024609273,-0.12082378,-0.041991048,-0.08326966,-0.06859395,-0.03331073,0.033174105,-0.025307367,
0.0044955406,0.10911549,0.06759829,0.1675399,0.021212984,-0.09183437,-0.3046792,0.04114648,0.0344429,0.12001966,-0.095216885,0.12304966,-0.01959419,0.019082779,0.15177281,-0.06463443,0.37030333,-0.13069193,0.027500978,0.1688271,0.13394567,0.19115259,-0.13430203,-0.11468993,0.15278365,0.07113939,-0.11241761,0.28625622,-0.15899517,-0.0771833,-0.00091120106,-0.047524627,0.017795986,-0.17274737,0.025363836,-0.1012743,0.042817313,-0.15601133,-0.13668878,0.06727995,-0.16008262,0.09872327,-0.030882664,0.16529803,-0.163194,-0.17731005,-0.0069268267,0.0053282348,0.06392322,-0.120762385,
-0.082917996,0.070084706,-0.048454143,-0.04905053,0.050122015,0.11020318,0.030524764,-0.038969904,0.0045462074,0.017645024,0.12583244,-0.1011356,-0.006016515,-0.051629867,-0.09091754,-0.094685696,-0.23282804,-0.0013664649,-0.023739295,-0.08629044,0.1203723,0.0022223126,0.045386445,0.04718951,0.033739228,-0.049476482,-0.069221824,-0.06697163,0.09979595,0.1509132,0.13716364,0.22215962,0.027057307,0.11832778,-0.037520245,0.0149579765,0.06568001,-0.014037041,0.007836633,0.03592067,0.2176816,-0.10428735,0.063451536,-0.05496134,0.05841715,-0.03238578,0.034298174,0.11769318,0.17483571,0.24704492,
0.13393186,0.004626473,0.09880085,-0.014642669,-0.06809043,-0.022756446,-0.016665427,-0.06088079,0.14586195,-0.17109509,-0.26104042,0.13833924,0.10055219,-0.11904433,0.16012587,-0.107006624,0.02279751,-0.1607405,0.04871054,-0.006215195,-0.10569547,0.00088196807,-0.06397133,-0.22866431,0.058556017,0.015768465,-0.16291104,-0.11905827,0.17895003,0.20233332,0.021445852,0.06823024,-0.004998527,0.08107813,0.115823716,-0.15703623,-0.10571194,-0.036942504,-0.20805734,0.03126188,0.06577466,-0.12354602,0.068997346,-0.034301322,0.033669356,-0.0024974057,0.16806088,0.2046827,0.092992894,-0.3063232,
-0.020228928,0.010349772,0.04579145,-0.09913968,-0.036940433,0.034529522,-0.23861338,0.028296832,0.0360274,0.042627476,-0.17589408,0.108104594,0.012809567,-0.14006416,0.01971503,-0.1764262,-0.086711496,-0.13543588,0.0046927296,0.06908246,-0.00017625427,0.09318873,-0.065753184,-0.20140806,-0.11724309,-0.006452606,-0.21715735,0.0070084585,0.018285424,0.009761134,-0.03621467,-0.09176936,0.053845245,0.13058132,-0.0046983296,-0.16146086,0.08211526,-0.019513272,-0.23297773,-0.040765233,0.011428832,-0.22995217,0.04203184,-0.04755208,-0.13285406,-0.012754588,0.093753785,0.07937282,0.13520776,-0.11355498
};

const float fc1_bias[50]={0.09225403,-0.04080785,0.11172783,0.10573193,-0.08785499,-0.051957123,-0.00044773973,0.0074456786,0.12643583,0.076777436,0.072858065,0.06893682,0.17555861,0.019163147,0.019611966,0.031045957,-0.014602894,0.04315774,0.053440753,-0.040966704,0.08794433,-0.011418721,0.0367251,0.06452549,0.07221911,0.06875765,-0.039197367,0.122308716,-0.082682796,-0.021926995,0.06552629,0.06459866,0.18517908,0.029203802,0.06950314,-0.015240216,-0.025375893,0.073334925,-0.07530446,0.030378763,0.11264699,-0.01766441,0.14462763,0.0003391041,-0.088799,0.10534907,0.097202525,0.082395695,0.1577488,0.103192315};

const float fc2_wei[50][10]={0.23135446,-0.21024127,0.13355513,-0.056791615,0.23785204,-0.012431327,0.24642615,-0.15668711,-0.19304566,0.046957616,
-0.27985027,0.21888843,0.22122905,0.19319975,-0.1719547,0.0025772392,0.10427145,0.124267474,0.15358603,-0.17405337,
0.2662715,-0.15005505,0.18962222,-0.023943163,0.10920583,-0.14950205,0.19524243,-0.07127023,-0.057104968,0.080814965,
-0.21094999,0.22509983,0.23144199,0.22034614,-0.19422731,-0.17795978,-0.18999515,0.22618905,0.21347326,-0.0793351,
0.17416087,0.1563749,0.092184335,0.03296505,-0.02469,-0.32121465,-0.08100958,-0.13015033,0.08268962,0.08473027,
-0.19169633,0.22979446,0.19744346,0.18375464,0.089813344,-0.21832234,0.124478504,0.22116043,-0.026345823,-0.24260968,
-0.095088,-0.24225973,-0.16650638,-0.04203625,0.1830166,0.104302466,-0.47034383,0.19805713,-0.104724556,0.15927757,
-0.16232134,-0.11800779,0.057187933,0.034235988,0.06925625,0.056184642,0.12371393,-0.18667614,-0.04039455,-0.046772078,
0.16083878,-0.3215095,0.1224963,0.024920512,0.20866111,0.1342735,0.22952826,-0.21506494,0.032530565,-0.15201582,
-0.29711357,0.25422958,0.23751494,0.18872195,-0.18900393,-0.22005785,-0.21137996,0.23220016,0.18054582,-0.09908299,
-0.35509735,0.33858812,0.04229172,-0.117766365,0.16647224,-0.049473252,-0.22689217,0.2927054,0.074768834,0.11796778,
0.1253805,-0.267729,0.08776571,0.13165443,-0.26482627,0.16423865,0.09097168,-0.30477157,0.15111484,0.066268705,
-0.094113566,-0.2870075,0.11469414,0.10468203,0.2032999,0.14532857,0.21719147,-0.043173686,0.102893546,-0.23049977,
-0.258714,-0.21888188,-0.16813514,0.09240427,0.19199172,0.15967864,-0.3881324,0.167142,0.16550584,0.19004788,
-0.032574683,0.10424585,0.0677352,0.11660643,-0.17706378,0.1457681,0.15452705,-0.46427795,0.1560798,-0.10507347,
-0.10025191,-0.20428531,0.15307257,0.018232495,0.18268952,0.099782005,-0.15610841,-0.17156161,0.05469208,0.21644586,
-0.07699892,0.097199954,0.047172066,-0.29584593,0.036236186,-0.09376443,0.1784433,-0.32112774,0.14992619,-0.12808256,
-0.116606005,-0.1371705,0.11619151,-0.0051262244,-0.079134956,-0.045023642,-0.07896876,0.2851833,-0.061919823,0.2361432,
-0.27965218,-0.19317318,0.07730468,0.13994221,0.17944476,0.07101122,-0.34080064,-0.09742413,0.1629886,0.16116719,
-0.14273639,-0.11590631,0.17688148,-0.14058001,0.017221589,0.12984022,0.2134035,-0.06585168,0.088853896,-0.26838925,
0.111483395,0.09453768,0.30805814,-0.056355797,-0.06566469,-0.11217513,-0.230459,0.22873418,-0.0014865239,-0.07524402,
0.3145969,-0.24936566,0.27665955,-0.023855524,-0.12661855,-0.19411485,-0.029944336,-0.022148924,-0.14169851,-0.03727135,
-0.15861663,0.36217707,-0.21622522,0.17591205,0.11523806,-0.121586345,-0.061843917,0.24803562,-0.114968464,0.03107315,
-0.066422224,-0.17394279,0.15702958,-0.1928919,0.31130433,-0.17440802,0.09941523,-0.029749503,-0.13004276,0.26862222,
0.14132912,0.21393259,0.004891889,-0.31281206,-0.13462788,0.15764682,0.23086226,-0.33048108,0.18386307,-0.15611966,
-0.07110491,-0.17893943,0.1536248,-0.14809634,0.24551068,-0.069237486,0.22488178,-0.07377183,-0.09340515,-0.072213255,
-0.12589313,-0.0728733,0.124647364,-0.13004091,0.22791734,-0.05898562,-0.24818625,-0.13497986,-0.121592544,0.2233196,
0.21062872,0.2030728,0.16993165,-0.07948327,-0.12194469,-0.21843606,-0.19036072,0.13027032,0.1938426,-0.069362395,
-0.2222793,-0.2153056,-0.15251286,0.24479556,0.088507175,0.18117428,-0.18825074,-0.13662413,-0.030620456,0.08951439,
0.0011174412,-0.14685497,0.22623472,0.27351713,-0.20596272,0.04838436,-0.17145821,-0.18565734,0.009275926,-0.21165963,
-0.3242283,0.18319882,-0.2053525,0.15944833,0.16854076,0.14294708,-0.21493769,-0.20271522,0.14077106,0.19802849,
-0.20705648,0.2245383,-0.03878109,0.15855731,0.07374696,0.20414682,0.09982272,-0.16062728,-0.10290627,0.009949885,
-0.12229099,0.34063196,0.21594566,-0.09173877,0.08129515,-0.19724856,0.3098747,-0.17665498,-0.061164618,-0.2827643,
0.16442642,0.16612451,-0.11995121,-0.1084979,-0.2527204,0.18001272,0.19949314,0.10480845,-0.11154706,-0.03017588,
0.133908,-0.2408847,0.13136142,0.15375452,-0.3653355,0.1391855,-0.11598167,0.13808294,0.14332834,0.075151354,
-0.15118895,-0.3044701,0.17341135,-0.1770552,0.22358131,-0.14056018,0.11895032,-0.11511487,-0.053213645,0.18296556,
-0.16875905,0.06786599,0.28901133,-0.041265346,-0.08059471,-0.05551968,0.08653886,0.01795698,-0.2068042,-0.08597602,
0.109463595,-0.19791186,-0.059687544,0.25449288,-0.030932276,0.016382126,-0.26381096,0.28824648,-0.08684699,0.20276012,
-0.18756321,-0.20498078,0.1271062,0.12995274,-0.16470516,-0.1894914,-0.33530802,0.20957725,0.0052864766,0.19584261,
0.20259035,-0.3646424,-0.015677296,0.0029897578,-0.22044545,0.1983577,0.10817081,0.15004475,0.19845499,0.06225094,
0.17060152,0.037483774,-0.16629438,0.1820374,-0.18187818,0.19487575,0.10512396,0.099526346,-0.20522115,-0.12313255,
-0.16363563,-0.24354354,-0.03225466,-0.06952704,0.22992109,-0.10935243,-0.075488076,0.21386662,0.21198638,0.23266885,
0.2879504,-0.16568384,-0.08521575,-0.023186015,0.04545814,0.18864259,0.16529477,0.13608359,0.0151862,-0.025689749,
-0.096144594,-0.28159866,-0.1286174,-0.12543583,0.17869242,0.20658296,0.14263819,-0.14389244,0.21657993,0.13884866,
-0.024961708,-0.1658355,0.20526984,0.19768158,-0.20913461,0.06230229,-0.24814086,0.21671887,0.044038307,0.17300187,
0.27916402,-0.27529472,0.03140251,0.0012739301,-0.11791944,0.09117145,-0.13158575,0.2902079,0.030580623,0.22781777,
0.1725636,-0.14302702,-0.17894061,-0.16616039,0.08427603,0.1634554,0.18907766,-0.14083433,-0.121456034,-0.21743108,
0.19223835,-0.17647916,-0.025734372,0.21990462,-0.1922822,0.23558496,0.007493152,-0.11308772,-0.07379875,0.02752108,
0.25199157,-0.0861901,0.2539921,-0.025940707,0.01369643,0.06152799,0.048773795,-0.032371983,-0.23909396,0.018561667,
-0.33005878,0.26532722,-0.16972864,-0.16933155,0.18598352,0.19775616,-0.23536818,0.07788076,-0.009432418,0.1862274
};
const float fc2_bias[10]={0.07078253,0.39808375,-0.37315884,-0.12237263,0.05382443,-0.07630844,0.09148755,0.0028523474,0.3035335,0.12630197};
